digraph Tree {
node [shape=box, style="filled, rounded", color="black", fontname="helvetica"] ;
edge [fontname="helvetica"] ;
0 [label="당도 <= 4.15\ngini = 0.366\nsamples = 4547\nvalue = [1097, 3450]\nclass = 1", fillcolor="#78bced"] ;
1 [label="당도 <= 1.625\ngini = 0.482\nsamples = 2505\nvalue = [1015, 1490]\nclass = 1", fillcolor="#c0e0f7"] ;
0 -> 1 [labeldistance=2.5, labelangle=45, headlabel="True"] ;
2 [label="당도 <= 1.375\ngini = 0.187\nsamples = 930\nvalue = [97, 833]\nclass = 1", fillcolor="#50a8e8"] ;
1 -> 2 ;
3 [label="산도 <= 3.765\ngini = 0.036\nsamples = 485\nvalue = [9, 476]\nclass = 1", fillcolor="#3d9fe5"] ;
2 -> 3 ;
4 [label="산도 <= 2.895\ngini = 0.029\nsamples = 480\nvalue = [7, 473]\nclass = 1", fillcolor="#3c9ee5"] ;
3 -> 4 ;
5 [label="도수 <= 11.0\ngini = 0.219\nsamples = 8\nvalue = [1, 7]\nclass = 1", fillcolor="#55abe9"] ;
4 -> 5 ;
6 [label="gini = 0.0\nsamples = 4\nvalue = [0, 4]\nclass = 1", fillcolor="#399de5"] ;
5 -> 6 ;
7 [label="gini = 0.375\nsamples = 4\nvalue = [1, 3]\nclass = 1", fillcolor="#7bbeee"] ;
5 -> 7 ;
8 [label="당도 <= 1.175\ngini = 0.025\nsamples = 472\nvalue = [6, 466]\nclass = 1", fillcolor="#3c9ee5"] ;
4 -> 8 ;
9 [label="gini = 0.0\nsamples = 234\nvalue = [0, 234]\nclass = 1", fillcolor="#399de5"] ;
8 -> 9 ;
10 [label="gini = 0.049\nsamples = 238\nvalue = [6, 232]\nclass = 1", fillcolor="#3ea0e6"] ;
8 -> 10 ;
11 [label="gini = 0.48\nsamples = 5\nvalue = [2, 3]\nclass = 1", fillcolor="#bddef6"] ;
3 -> 11 ;
12 [label="도수 <= 10.067\ngini = 0.317\nsamples = 445\nvalue = [88, 357]\nclass = 1", fillcolor="#6ab5eb"] ;
2 -> 12 ;
13 [label="산도 <= 3.245\ngini = 0.472\nsamples = 139\nvalue = [53, 86]\nclass = 1", fillcolor="#b3d9f5"] ;
12 -> 13 ;
14 [label="산도 <= 3.175\ngini = 0.349\nsamples = 71\nvalue = [16, 55]\nclass = 1", fillcolor="#73baed"] ;
13 -> 14 ;
15 [label="gini = 0.403\nsamples = 50\nvalue = [14, 36]\nclass = 1", fillcolor="#86c3ef"] ;
14 -> 15 ;
16 [label="gini = 0.172\nsamples = 21\nvalue = [2, 19]\nclass = 1", fillcolor="#4ea7e8"] ;
14 -> 16 ;
17 [label="도수 <= 9.575\ngini = 0.496\nsamples = 68\nvalue = [37, 31]\nclass = 0", fillcolor="#fbebdf"] ;
13 -> 17 ;
18 [label="gini = 0.375\nsamples = 28\nvalue = [21, 7]\nclass = 0", fillcolor="#eeab7b"] ;
17 -> 18 ;
19 [label="gini = 0.48\nsamples = 40\nvalue = [16, 24]\nclass = 1", fillcolor="#bddef6"] ;
17 -> 19 ;
20 [label="산도 <= 3.445\ngini = 0.203\nsamples = 306\nvalue = [35, 271]\nclass = 1", fillcolor="#53aae8"] ;
12 -> 20 ;
21 [label="도수 <= 11.95\ngini = 0.141\nsamples = 263\nvalue = [20, 243]\nclass = 1", fillcolor="#49a5e7"] ;
20 -> 21 ;
22 [label="gini = 0.181\nsamples = 199\nvalue = [20, 179]\nclass = 1", fillcolor="#4fa8e8"] ;
21 -> 22 ;
23 [label="gini = 0.0\nsamples = 64\nvalue = [0, 64]\nclass = 1", fillcolor="#399de5"] ;
21 -> 23 ;
24 [label="도수 <= 10.85\ngini = 0.454\nsamples = 43\nvalue = [15, 28]\nclass = 1", fillcolor="#a3d2f3"] ;
20 -> 24 ;
25 [label="gini = 0.172\nsamples = 21\nvalue = [2, 19]\nclass = 1", fillcolor="#4ea7e8"] ;
24 -> 25 ;
26 [label="gini = 0.483\nsamples = 22\nvalue = [13, 9]\nclass = 0", fillcolor="#f7d8c2"] ;
24 -> 26 ;
27 [label="도수 <= 11.025\ngini = 0.486\nsamples = 1575\nvalue = [918, 657]\nclass = 0", fillcolor="#f8dbc7"] ;
1 -> 27 ;
28 [label="산도 <= 3.235\ngini = 0.412\nsamples = 984\nvalue = [698, 286]\nclass = 0", fillcolor="#f0b58a"] ;
27 -> 28 ;
29 [label="당도 <= 3.25\ngini = 0.493\nsamples = 387\nvalue = [216, 171]\nclass = 0", fillcolor="#fae5d6"] ;
28 -> 29 ;
30 [label="도수 <= 9.85\ngini = 0.479\nsamples = 342\nvalue = [206, 136]\nclass = 0", fillcolor="#f6d4bc"] ;
29 -> 30 ;
31 [label="gini = 0.397\nsamples = 165\nvalue = [120, 45]\nclass = 0", fillcolor="#efb083"] ;
30 -> 31 ;
32 [label="gini = 0.5\nsamples = 177\nvalue = [86, 91]\nclass = 1", fillcolor="#f4fafe"] ;
30 -> 32 ;
33 [label="산도 <= 3.19\ngini = 0.346\nsamples = 45\nvalue = [10, 35]\nclass = 1", fillcolor="#72b9ec"] ;
29 -> 33 ;
34 [label="gini = 0.26\nsamples = 39\nvalue = [6, 33]\nclass = 1", fillcolor="#5dafea"] ;
33 -> 34 ;
35 [label="gini = 0.444\nsamples = 6\nvalue = [4, 2]\nclass = 0", fillcolor="#f2c09c"] ;
33 -> 35 ;
36 [label="도수 <= 9.975\ngini = 0.311\nsamples = 597\nvalue = [482, 115]\nclass = 0", fillcolor="#eb9f68"] ;
28 -> 36 ;
37 [label="당도 <= 2.65\ngini = 0.177\nsamples = 285\nvalue = [257, 28]\nclass = 0", fillcolor="#e88f4f"] ;
36 -> 37 ;
38 [label="gini = 0.112\nsamples = 235\nvalue = [221, 14]\nclass = 0", fillcolor="#e78946"] ;
37 -> 38 ;
39 [label="gini = 0.403\nsamples = 50\nvalue = [36, 14]\nclass = 0", fillcolor="#efb286"] ;
37 -> 39 ;
40 [label="산도 <= 3.285\ngini = 0.402\nsamples = 312\nvalue = [225, 87]\nclass = 0", fillcolor="#efb286"] ;
36 -> 40 ;
41 [label="gini = 0.5\nsamples = 53\nvalue = [27, 26]\nclass = 0", fillcolor="#fefaf8"] ;
40 -> 41 ;
42 [label="gini = 0.36\nsamples = 259\nvalue = [198, 61]\nclass = 0", fillcolor="#eda876"] ;
40 -> 42 ;
43 [label="산도 <= 3.325\ngini = 0.467\nsamples = 591\nvalue = [220, 371]\nclass = 1", fillcolor="#aed7f4"] ;
27 -> 43 ;
44 [label="산도 <= 3.115\ngini = 0.363\nsamples = 407\nvalue = [97, 310]\nclass = 1", fillcolor="#77bced"] ;
43 -> 44 ;
45 [label="당도 <= 2.05\ngini = 0.146\nsamples = 126\nvalue = [10, 116]\nclass = 1", fillcolor="#4aa5e7"] ;
44 -> 45 ;
46 [label="gini = 0.0\nsamples = 34\nvalue = [0, 34]\nclass = 1", fillcolor="#399de5"] ;
45 -> 46 ;
47 [label="gini = 0.194\nsamples = 92\nvalue = [10, 82]\nclass = 1", fillcolor="#51a9e8"] ;
45 -> 47 ;
48 [label="도수 <= 12.15\ngini = 0.428\nsamples = 281\nvalue = [87, 194]\nclass = 1", fillcolor="#92c9f1"] ;
44 -> 48 ;
49 [label="gini = 0.49\nsamples = 151\nvalue = [65, 86]\nclass = 1", fillcolor="#cfe7f9"] ;
48 -> 49 ;
50 [label="gini = 0.281\nsamples = 130\nvalue = [22, 108]\nclass = 1", fillcolor="#61b1ea"] ;
48 -> 50 ;
51 [label="당도 <= 3.05\ngini = 0.443\nsamples = 184\nvalue = [123, 61]\nclass = 0", fillcolor="#f2bf9b"] ;
43 -> 51 ;
52 [label="도수 <= 11.95\ngini = 0.404\nsamples = 160\nvalue = [115, 45]\nclass = 0", fillcolor="#efb286"] ;
51 -> 52 ;
53 [label="gini = 0.257\nsamples = 86\nvalue = [73, 13]\nclass = 0", fillcolor="#ea975c"] ;
52 -> 53 ;
54 [label="gini = 0.491\nsamples = 74\nvalue = [42, 32]\nclass = 0", fillcolor="#f9e1d0"] ;
52 -> 54 ;
55 [label="도수 <= 11.55\ngini = 0.444\nsamples = 24\nvalue = [8, 16]\nclass = 1", fillcolor="#9ccef2"] ;
51 -> 55 ;
56 [label="gini = 0.494\nsamples = 9\nvalue = [5, 4]\nclass = 0", fillcolor="#fae6d7"] ;
55 -> 56 ;
57 [label="gini = 0.32\nsamples = 15\nvalue = [3, 12]\nclass = 1", fillcolor="#6ab6ec"] ;
55 -> 57 ;
58 [label="당도 <= 6.45\ngini = 0.077\nsamples = 2042\nvalue = [82, 1960]\nclass = 1", fillcolor="#41a1e6"] ;
0 -> 58 [labeldistance=2.5, labelangle=-45, headlabel="False"] ;
59 [label="산도 <= 3.265\ngini = 0.204\nsamples = 519\nvalue = [60, 459]\nclass = 1", fillcolor="#53aae8"] ;
58 -> 59 ;
60 [label="당도 <= 4.65\ngini = 0.119\nsamples = 331\nvalue = [21, 310]\nclass = 1", fillcolor="#46a4e7"] ;
59 -> 60 ;
61 [label="산도 <= 3.075\ngini = 0.224\nsamples = 78\nvalue = [10, 68]\nclass = 1", fillcolor="#56abe9"] ;
60 -> 61 ;
62 [label="도수 <= 11.85\ngini = 0.455\nsamples = 20\nvalue = [7, 13]\nclass = 1", fillcolor="#a4d2f3"] ;
61 -> 62 ;
63 [label="gini = 0.498\nsamples = 15\nvalue = [7, 8]\nclass = 1", fillcolor="#e6f3fc"] ;
62 -> 63 ;
64 [label="gini = 0.0\nsamples = 5\nvalue = [0, 5]\nclass = 1", fillcolor="#399de5"] ;
62 -> 64 ;
65 [label="당도 <= 4.35\ngini = 0.098\nsamples = 58\nvalue = [3, 55]\nclass = 1", fillcolor="#44a2e6"] ;
61 -> 65 ;
66 [label="gini = 0.211\nsamples = 25\nvalue = [3, 22]\nclass = 1", fillcolor="#54aae9"] ;
65 -> 66 ;
67 [label="gini = 0.0\nsamples = 33\nvalue = [0, 33]\nclass = 1", fillcolor="#399de5"] ;
65 -> 67 ;
68 [label="산도 <= 3.155\ngini = 0.083\nsamples = 253\nvalue = [11, 242]\nclass = 1", fillcolor="#42a1e6"] ;
60 -> 68 ;
69 [label="당도 <= 5.75\ngini = 0.031\nsamples = 125\nvalue = [2, 123]\nclass = 1", fillcolor="#3c9fe5"] ;
68 -> 69 ;
70 [label="gini = 0.0\nsamples = 79\nvalue = [0, 79]\nclass = 1", fillcolor="#399de5"] ;
69 -> 70 ;
71 [label="gini = 0.083\nsamples = 46\nvalue = [2, 44]\nclass = 1", fillcolor="#42a1e6"] ;
69 -> 71 ;
72 [label="도수 <= 12.45\ngini = 0.131\nsamples = 128\nvalue = [9, 119]\nclass = 1", fillcolor="#48a4e7"] ;
68 -> 72 ;
73 [label="gini = 0.085\nsamples = 112\nvalue = [5, 107]\nclass = 1", fillcolor="#42a2e6"] ;
72 -> 73 ;
74 [label="gini = 0.375\nsamples = 16\nvalue = [4, 12]\nclass = 1", fillcolor="#7bbeee"] ;
72 -> 74 ;
75 [label="도수 <= 10.15\ngini = 0.329\nsamples = 188\nvalue = [39, 149]\nclass = 1", fillcolor="#6db7ec"] ;
59 -> 75 ;
76 [label="당도 <= 5.35\ngini = 0.155\nsamples = 59\nvalue = [5, 54]\nclass = 1", fillcolor="#4ba6e7"] ;
75 -> 76 ;
77 [label="당도 <= 4.45\ngini = 0.057\nsamples = 34\nvalue = [1, 33]\nclass = 1", fillcolor="#3fa0e6"] ;
76 -> 77 ;
78 [label="gini = 0.375\nsamples = 4\nvalue = [1, 3]\nclass = 1", fillcolor="#7bbeee"] ;
77 -> 78 ;
79 [label="gini = 0.0\nsamples = 30\nvalue = [0, 30]\nclass = 1", fillcolor="#399de5"] ;
77 -> 79 ;
80 [label="당도 <= 6.15\ngini = 0.269\nsamples = 25\nvalue = [4, 21]\nclass = 1", fillcolor="#5fb0ea"] ;
76 -> 80 ;
81 [label="gini = 0.426\nsamples = 13\nvalue = [4, 9]\nclass = 1", fillcolor="#91c9f1"] ;
80 -> 81 ;
82 [label="gini = 0.0\nsamples = 12\nvalue = [0, 12]\nclass = 1", fillcolor="#399de5"] ;
80 -> 82 ;
83 [label="도수 <= 12.25\ngini = 0.388\nsamples = 129\nvalue = [34, 95]\nclass = 1", fillcolor="#80c0ee"] ;
75 -> 83 ;
84 [label="산도 <= 3.455\ngini = 0.433\nsamples = 101\nvalue = [32, 69]\nclass = 1", fillcolor="#95caf1"] ;
83 -> 84 ;
85 [label="gini = 0.465\nsamples = 76\nvalue = [28, 48]\nclass = 1", fillcolor="#acd6f4"] ;
84 -> 85 ;
86 [label="gini = 0.269\nsamples = 25\nvalue = [4, 21]\nclass = 1", fillcolor="#5fb0ea"] ;
84 -> 86 ;
87 [label="당도 <= 4.65\ngini = 0.133\nsamples = 28\nvalue = [2, 26]\nclass = 1", fillcolor="#48a5e7"] ;
83 -> 87 ;
88 [label="gini = 0.298\nsamples = 11\nvalue = [2, 9]\nclass = 1", fillcolor="#65b3eb"] ;
87 -> 88 ;
89 [label="gini = 0.0\nsamples = 17\nvalue = [0, 17]\nclass = 1", fillcolor="#399de5"] ;
87 -> 89 ;
90 [label="산도 <= 3.365\ngini = 0.028\nsamples = 1523\nvalue = [22, 1501]\nclass = 1", fillcolor="#3c9ee5"] ;
58 -> 90 ;
91 [label="산도 <= 3.155\ngini = 0.018\nsamples = 1395\nvalue = [13, 1382]\nclass = 1", fillcolor="#3b9ee5"] ;
90 -> 91 ;
92 [label="도수 <= 12.25\ngini = 0.005\nsamples = 794\nvalue = [2, 792]\nclass = 1", fillcolor="#399de5"] ;
91 -> 92 ;
93 [label="당도 <= 15.45\ngini = 0.003\nsamples = 756\nvalue = [1, 755]\nclass = 1", fillcolor="#399de5"] ;
92 -> 93 ;
94 [label="gini = 0.0\nsamples = 645\nvalue = [0, 645]\nclass = 1", fillcolor="#399de5"] ;
93 -> 94 ;
95 [label="gini = 0.018\nsamples = 111\nvalue = [1, 110]\nclass = 1", fillcolor="#3b9ee5"] ;
93 -> 95 ;
96 [label="도수 <= 12.35\ngini = 0.051\nsamples = 38\nvalue = [1, 37]\nclass = 1", fillcolor="#3ea0e6"] ;
92 -> 96 ;
97 [label="gini = 0.198\nsamples = 9\nvalue = [1, 8]\nclass = 1", fillcolor="#52a9e8"] ;
96 -> 97 ;
98 [label="gini = 0.0\nsamples = 29\nvalue = [0, 29]\nclass = 1", fillcolor="#399de5"] ;
96 -> 98 ;
99 [label="산도 <= 3.185\ngini = 0.036\nsamples = 601\nvalue = [11, 590]\nclass = 1", fillcolor="#3d9fe5"] ;
91 -> 99 ;
100 [label="도수 <= 9.05\ngini = 0.079\nsamples = 145\nvalue = [6, 139]\nclass = 1", fillcolor="#42a1e6"] ;
99 -> 100 ;
101 [label="gini = 0.278\nsamples = 24\nvalue = [4, 20]\nclass = 1", fillcolor="#61b1ea"] ;
100 -> 101 ;
102 [label="gini = 0.033\nsamples = 121\nvalue = [2, 119]\nclass = 1", fillcolor="#3c9fe5"] ;
100 -> 102 ;
103 [label="당도 <= 8.95\ngini = 0.022\nsamples = 456\nvalue = [5, 451]\nclass = 1", fillcolor="#3b9ee5"] ;
99 -> 103 ;
104 [label="gini = 0.048\nsamples = 205\nvalue = [5, 200]\nclass = 1", fillcolor="#3e9fe6"] ;
103 -> 104 ;
105 [label="gini = 0.0\nsamples = 251\nvalue = [0, 251]\nclass = 1", fillcolor="#399de5"] ;
103 -> 105 ;
106 [label="당도 <= 8.85\ngini = 0.131\nsamples = 128\nvalue = [9, 119]\nclass = 1", fillcolor="#48a4e7"] ;
90 -> 106 ;
107 [label="산도 <= 3.385\ngini = 0.231\nsamples = 60\nvalue = [8, 52]\nclass = 1", fillcolor="#57ace9"] ;
106 -> 107 ;
108 [label="도수 <= 10.2\ngini = 0.43\nsamples = 16\nvalue = [5, 11]\nclass = 1", fillcolor="#93caf1"] ;
107 -> 108 ;
109 [label="gini = 0.469\nsamples = 8\nvalue = [5, 3]\nclass = 0", fillcolor="#f5cdb0"] ;
108 -> 109 ;
110 [label="gini = 0.0\nsamples = 8\nvalue = [0, 8]\nclass = 1", fillcolor="#399de5"] ;
108 -> 110 ;
111 [label="당도 <= 7.875\ngini = 0.127\nsamples = 44\nvalue = [3, 41]\nclass = 1", fillcolor="#47a4e7"] ;
107 -> 111 ;
112 [label="gini = 0.0\nsamples = 23\nvalue = [0, 23]\nclass = 1", fillcolor="#399de5"] ;
111 -> 112 ;
113 [label="gini = 0.245\nsamples = 21\nvalue = [3, 18]\nclass = 1", fillcolor="#5aade9"] ;
111 -> 113 ;
114 [label="도수 <= 10.45\ngini = 0.029\nsamples = 68\nvalue = [1, 67]\nclass = 1", fillcolor="#3c9ee5"] ;
106 -> 114 ;
115 [label="gini = 0.0\nsamples = 53\nvalue = [0, 53]\nclass = 1", fillcolor="#399de5"] ;
114 -> 115 ;
116 [label="당도 <= 13.225\ngini = 0.124\nsamples = 15\nvalue = [1, 14]\nclass = 1", fillcolor="#47a4e7"] ;
114 -> 116 ;
117 [label="gini = 0.0\nsamples = 11\nvalue = [0, 11]\nclass = 1", fillcolor="#399de5"] ;
116 -> 117 ;
118 [label="gini = 0.375\nsamples = 4\nvalue = [1, 3]\nclass = 1", fillcolor="#7bbeee"] ;
116 -> 118 ;
}